{"learner":{"attributes":{"scikit_learn":"{\"_estimator_type\": \"classifier\"}"},"feature_names":["Distal_Margin","Tumor_Location","Tumor_Wall_Invasion","Tumor_Type_3A","CEA_B","Tumor_Size_Mucosal_1-3","ABO_BT","Sex"],"feature_types":["float","float","float","float","float","float","float","float"],"gradient_booster":{"model":{"cats":{"enc":[],"feature_segments":[],"sorted_idx":[]},"gbtree_model_param":{"num_parallel_tree":"1","num_trees":"16"},"iteration_indptr":[0,1,2,3,4,5,6,7,8,9,10,11,12,13,14,15,16],"tree_info":[0,0,0,0,0,0,0,0,0,0,0,0,0,0,0,0],"trees":[{"base_weights":[2.179827E-8,8.1203616E-1,-1.1132337E0,-3.9473683E-1,1.0555186E0,4.9381357E-2,-1.6122717E0,-5.28885E-1,5.4256335E-2,-7.0564914E-1,1.1603786E0,3.0054682E-1,-4.901566E-1,-1.7062205E0,2.6725075E-1,-4.55301E-1,3.714903E-1,-1.1084543E0,3.1132537E-1,1.3071768E0,5.357841E-1,-3.6531624E-1,7.8246063E-1,-1.187705E0,-5.8624357E-1,2.3074077E-2,4.0262493E-1,5.7623904E-2,-4.96692E-1,-1.2302854E-1,4.2261115E-1,-2.651114E-1,2.6967576E-1,-5.1738745E-1,1.8408963E-1,4.0272325E-1,-1.2280007E-1,-5.0219357E-1,-3.986623E-2],"categories":[],"categories_nodes":[],"categories_segments":[],"categories_sizes":[],"default_left":[0,0,0,0,0,0,0,0,0,0,0,0,0,0,0,0,0,0,0,0,0,0,0,0,0,0,0,0,0,0,0,0,0,0,0,0,0,0,0],"id":0,"left_children":[1,3,5,7,9,11,13,-1,15,17,19,21,-1,23,-1,-1,25,27,-1,29,31,33,35,37,-1,-1,-1,-1,-1,-1,-1,-1,-1,-1,-1,-1,-1,-1,-1],"loss_changes":[2.3820032E2,4.5184753E1,6.456093E1,1.5553919E1,2.4282608E1,1.4522222E1,1.9543564E1,0E0,1.0463701E1,6.4531555E0,1.0329163E1,1.010442E1,0E0,4.871002E0,0E0,0E0,4.80107E0,4.5943375E0,0E0,9.465927E0,1.2118002E1,1.7860422E1,1.1472118E1,9.937868E0,0E0,0E0,0E0,0E0,0E0,0E0,0E0,0E0,0E0,0E0,0E0,0E0,0E0,0E0,0E0],"parents":[2147483647,0,0,1,1,2,2,3,3,4,4,5,5,6,6,8,8,9,9,10,10,11,11,13,13,16,16,17,17,19,19,20,20,21,21,22,22,23,23],"right_children":[2,4,6,8,10,12,14,-1,16,18,20,22,-1,24,-1,-1,26,28,-1,30,32,34,36,38,-1,-1,-1,-1,-1,-1,-1,-1,-1,-1,-1,-1,-1,-1,-1],"split_conditions":[-3.7801573E-1,3.085205E-1,-5.988082E-1,4.8607063E-1,-5.011895E-1,9.3464553E-1,1.281776E0,-5.28885E-1,-1.0848334E0,2.2550313E0,-6.9776654E-1,2.1773605E-1,-4.901566E-1,3.119729E-1,2.6725075E-1,-4.55301E-1,1.2310776E0,-5.988082E-1,3.1132537E-1,-1.5055581E0,-5.237016E-1,3.085205E-1,1.2401723E0,1.7734097E-1,-5.8624357E-1,2.3074077E-2,4.0262493E-1,5.7623904E-2,-4.96692E-1,-1.2302854E-1,4.2261115E-1,-2.651114E-1,2.6967576E-1,-5.1738745E-1,1.8408963E-1,4.0272325E-1,-1.2280007E-1,-5.0219357E-1,-3.986623E-2],"split_indices":[0,1,5,3,3,0,1,0,0,1,0,4,0,0,0,0,4,5,0,0,4,1,2,0,0,0,0,0,0,0,0,0,0,0,0,0,0,0,0],"split_type":[0,0,0,0,0,0,0,0,0,0,0,0,0,0,0,0,0,0,0,0,0,0,0,0,0,0,0,0,0,0,0,0,0,0,0,0,0,0,0],"sum_hessian":[2.615E2,1.5136154E2,1.1013846E2,2.5307693E1,1.2605385E2,3.3348076E1,7.679038E1,5.75E0,1.9557693E1,6.7615385E0,1.1929231E2,2.9598078E1,3.75E0,7.427885E1,2.5115385E0,2.75E0,1.6807693E1,5.7557693E0,1.0057693E0,9.570577E1,2.3586538E1,1.2528847E1,1.7069231E1,2.1273077E1,5.3005768E1,1.3540384E1,3.2673078E0,1.7557693E0,4E0,2.7557693E0,9.2950005E1,4.2557693E0,1.9330769E1,5E0,7.5288463E0,1.1807693E1,5.2615385E0,1.475577E1,6.5173078E0],"tree_param":{"num_deleted":"0","num_feature":"8","num_nodes":"39","size_leaf_vector":"1"}},{"base_weights":[-9.298848E-3,3.9365992E-1,-1.2376682E0,7.6592356E-1,-1.8833874E-1,-5.200747E-1,-1.386047E0,9.3016684E-2,9.477761E-1,-1.11515E0,2.6618648E-1,3.4387013E-1,-4.5954525E-1,-4.4831127E-1,1.6370966E-1,-4.528722E-1,4.5603362E-1,3.8443568E-1,6.106918E-1,-1.36233E0,3.6013073E-1,-1.120616E0,4.3568596E-1,7.225258E-1,-2.7072814E-1,4.5990953E-1,6.626214E-2,2.2094257E-1,-4.3085226E-1,-4.6375558E-1,1.7156272E-1,6.57906E-2,-4.9983832E-1,2.3056462E-1,-9.24702E-2,1.6919099E-2,3.1778124E-1],"categories":[],"categories_nodes":[],"categories_segments":[],"categories_sizes":[],"default_left":[0,0,0,0,0,0,0,0,0,0,0,0,0,0,0,0,0,0,0,0,0,0,0,0,0,0,0,0,0,0,0,0,0,0,0,0,0],"id":1,"left_children":[1,3,5,7,9,11,13,15,17,19,21,23,-1,-1,-1,-1,25,-1,27,29,-1,31,33,35,-1,-1,-1,-1,-1,-1,-1,-1,-1,-1,-1,-1,-1],"loss_changes":[1.24625145E2,4.122293E1,5.9009094E0,1.408651E1,3.1793411E1,1.0677212E1,6.4241943E0,1.5173259E1,8.166145E0,1.5524914E1,1.2470039E1,3.9743907E0,0E0,0E0,0E0,0E0,5.065179E0,0E0,9.901196E0,6.5765495E0,0E0,4.145169E0,1.0613609E1,1.1684453E0,0E0,0E0,0E0,0E0,0E0,0E0,0E0,0E0,0E0,0E0,0E0,0E0,0E0],"parents":[2147483647,0,0,1,1,2,2,3,3,4,4,5,5,6,6,7,7,8,8,9,9,10,10,11,11,16,16,18,18,19,19,21,21,22,22,23,23],"right_children":[2,4,6,8,10,12,14,16,18,20,22,24,-1,-1,-1,-1,26,-1,28,30,-1,32,34,36,-1,-1,-1,-1,-1,-1,-1,-1,-1,-1,-1,-1,-1],"split_conditions":[3.119729E-1,2.0466116E-1,-5.988082E-1,3.085205E-1,4.8607063E-1,-2.8553468E-3,1.281776E0,-7.3142457E-1,-1.0006884E0,2.2550313E0,-1.2194653E0,9.3464553E-1,-4.5954525E-1,-4.4831127E-1,1.6370966E-1,-4.528722E-1,-7.559419E-3,3.8443568E-1,1.8968302E0,1.674201E0,3.6013073E-1,-5.772455E-1,-4.1167372E-1,3.1225313E-2,-2.7072814E-1,4.5990953E-1,6.626214E-2,2.2094257E-1,-4.3085226E-1,-4.6375558E-1,1.7156272E-1,6.57906E-2,-4.9983832E-1,2.3056462E-1,-9.24702E-2,1.6919099E-2,3.1778124E-1],"split_indices":[0,5,5,1,3,2,1,0,0,1,0,0,0,0,0,0,3,0,6,4,0,4,0,4,0,0,0,0,0,0,0,0,0,0,0,0,0],"split_type":[0,0,0,0,0,0,0,0,0,0,0,0,0,0,0,0,0,0,0,0,0,0,0,0,0,0,0,0,0,0,0,0,0,0,0,0,0],"sum_hessian":[2.4979271E2,1.8860242E2,6.1190304E1,1.148347E2,7.376771E1,1.1256485E1,4.993382E1,2.4752987E1,9.008172E1,2.3794827E1,4.9972885E1,6.263314E0,4.9931717E0,4.8700207E1,1.2336109E0,4.1203327E0,2.0632654E1,4.6939674E1,4.314204E1,2.1825016E1,1.969809E0,4.8314924E0,4.514139E1,5.0854855E0,1.177828E0,2.9700403E0,1.7662613E1,4.1678974E1,1.4630649E0,2.0627659E1,1.1973588E0,1.4503832E0,3.3811092E0,3.1813324E1,1.3328066E1,1.9471554E0,3.1383302E0],"tree_param":{"num_deleted":"0","num_feature":"8","num_nodes":"37","size_leaf_vector":"1"}},{"base_weights":[-1.4340341E-2,4.507847E-1,-6.922971E-1,-2.3248641E-1,5.924763E-1,-5.259892E-2,-1.0027374E0,-7.268057E-1,4.9023557E-1,7.802373E-1,2.3354009E-1,8.837689E-1,-2.431365E-1,-1.073148E0,1.7814086E-1,-1.2186466E0,6.273106E-1,1.1778765E0,-2.2579631E-1,8.6904603E-1,2.6146278E-2,-9.4935274E-1,4.3113717E-1,-1.7187372E-3,3.927608E-1,2.656592E-1,-6.4996135E-1,-1.1625576E0,-3.14131E-1,-4.57231E-1,-7.5196633E-3,-5.678523E-3,3.1907952E-1,1.0879266E-1,4.3499961E-1,-3.40874E-1,1.5446758E-1,2.0011517E-1,3.573657E-1,1.6455014E-1,-4.787257E-1,-1.4146834E-2,-4.114407E-1,1.4229517E-2,2.9778793E-1,-1.8156347E-1,3.1547853E-1,-4.5914087E-1,8.3119564E-2,-2.5619224E-1,-3.878188E-1,1.3825792E-1,-3.2264718E-1],"categories":[],"categories_nodes":[],"categories_segments":[],"categories_sizes":[],"default_left":[0,0,0,0,0,0,0,0,0,0,0,0,0,0,0,0,0,0,0,0,0,0,0,0,0,0,0,0,0,0,0,0,0,0,0,0,0,0,0,0,0,0,0,0,0,0,0,0,0,0,0,0,0],"id":2,"left_children":[1,3,5,7,9,11,13,15,17,19,21,23,25,27,-1,29,31,33,35,37,39,41,43,-1,-1,45,47,49,51,-1,-1,-1,-1,-1,-1,-1,-1,-1,-1,-1,-1,-1,-1,-1,-1,-1,-1,-1,-1,-1,-1,-1,-1],"loss_changes":[7.2986465E1,1.3429773E1,1.8648819E1,9.037358E0,7.500431E0,5.8927946E0,7.6479836E0,1.0643114E1,5.419481E0,4.9609795E0,9.893972E0,1.9054675E0,5.8085847E0,3.7736816E0,0E0,3.371584E0,1.2114805E0,5.255518E-1,4.311233E0,3.4712868E0,7.8285804E0,2.0196376E0,7.1713223E0,0E0,0E0,8.770845E0,1.2128575E1,5.5418396E-1,4.757716E0,0E0,0E0,0E0,0E0,0E0,0E0,0E0,0E0,0E0,0E0,0E0,0E0,0E0,0E0,0E0,0E0,0E0,0E0,0E0,0E0,0E0,0E0,0E0,0E0],"parents":[2147483647,0,0,1,1,2,2,3,3,4,4,5,5,6,6,7,7,8,8,9,9,10,10,11,11,12,12,13,13,15,15,16,16,17,17,18,18,19,19,20,20,21,21,22,22,25,25,26,26,27,27,28,28],"right_children":[2,4,6,8,10,12,14,16,18,20,22,24,26,28,-1,30,32,34,36,38,40,42,44,-1,-1,46,48,50,52,-1,-1,-1,-1,-1,-1,-1,-1,-1,-1,-1,-1,-1,-1,-1,-1,-1,-1,-1,-1,-1,-1,-1,-1],"split_conditions":[-3.7801573E-1,3.085205E-1,-5.988082E-1,1.8969954E0,2.0466116E-1,-7.559419E-3,1.281776E0,1.2310776E0,-4.8905566E-1,-6.4727956E-1,-1.2194653E0,1.2401723E0,-2.8553468E-3,1.2401723E0,1.7814086E-1,-5.2947664E-1,6.186584E-1,-1.3869988E0,-7.3142457E-1,2.6478013E-1,1.6813616E-1,-5.772455E-1,1.281776E0,-1.7187372E-3,3.927608E-1,3.310266E-1,3.085205E-1,2.2782794E-1,3.119729E-1,-4.57231E-1,-7.5196633E-3,-5.678523E-3,3.1907952E-1,1.0879266E-1,4.3499961E-1,-3.40874E-1,1.5446758E-1,2.0011517E-1,3.573657E-1,1.6455014E-1,-4.787257E-1,-1.4146834E-2,-4.114407E-1,1.4229517E-2,2.9778793E-1,-1.8156347E-1,3.1547853E-1,-4.5914087E-1,8.3119564E-2,-2.5619224E-1,-3.878188E-1,1.3825792E-1,-3.2264718E-1],"split_indices":[0,1,5,7,5,3,1,4,4,0,0,2,2,2,0,0,2,4,0,4,4,4,1,0,0,4,1,0,0,0,0,0,0,0,0,0,0,0,0,0,0,0,0,0,0,0,0,0,0,0,0,0,0],"split_type":[0,0,0,0,0,0,0,0,0,0,0,0,0,0,0,0,0,0,0,0,0,0,0,0,0,0,0,0,0,0,0,0,0,0,0,0,0,0,0,0,0,0,0,0,0,0,0,0,0,0,0,0,0],"sum_hessian":[2.294675E2,1.3629489E2,9.317261E1,2.3299288E1,1.12995605E2,3.082453E1,6.2348076E1,1.38325815E1,9.466705E0,7.3417076E1,3.957853E1,4.596659E0,2.622787E1,5.9988304E1,2.3597703E0,1.0220386E1,3.6121962E0,4.500065E0,4.9666405E0,6.55454E1,7.8716726E0,5.1205344E0,3.4457993E1,1.6755825E0,2.9210765E0,1.1807637E1,1.4420234E1,5.3190937E1,6.7973666E0,8.234508E0,1.9858778E0,1.7484119E0,1.8637842E0,1.502769E0,2.9972956E0,2.016805E0,2.9498358E0,3.8337112E1,2.7208288E1,6.458436E0,1.4132366E0,1.833911E0,3.2866235E0,2.0551428E1,1.3906567E1,5.6388288E0,6.168808E0,7.254649E0,7.165584E0,1.3030681E1,4.016026E1,3.5086806E0,3.288686E0],"tree_param":{"num_deleted":"0","num_feature":"8","num_nodes":"53","size_leaf_vector":"1"}},{"base_weights":[-1.586148E-2,2.2427705E-1,-9.0304255E-1,3.0850768E-1,-8.8557357E-1,-3.719721E-1,-1.0320367E0,1.1016558E-1,6.3724136E-1,-1.0848956E0,1.7646147E-1,1.8939905E-1,-3.305969E-1,-1.0889606E0,1.112988E-1,3.7335566E-1,-2.6489374E-1,7.4468565E-1,-1.9104877E-1,-4.1423243E-1,1.2020077E-1,5.238077E-1,-2.4194111E-1,-7.9612756E-1,-3.694049E-1,1.8610767E-1,-6.7675277E-3,-3.8310596E-1,5.564459E-3,1.8129472E-1,3.2767868E-1,-4.555217E-1,1.3649231E-1,1.3625842E-2,2.7981344E-1,9.175929E-3,-3.4098026E-1],"categories":[],"categories_nodes":[],"categories_segments":[],"categories_sizes":[],"default_left":[0,0,0,0,0,0,0,0,0,0,0,0,0,0,0,0,0,0,0,0,0,0,0,0,0,0,0,0,0,0,0,0,0,0,0,0,0],"id":3,"left_children":[1,3,5,7,9,11,13,15,17,19,-1,21,-1,23,-1,25,27,29,31,-1,-1,33,-1,35,-1,-1,-1,-1,-1,-1,-1,-1,-1,-1,-1,-1,-1],"loss_changes":[4.476177E1,1.5735421E1,2.6818466E0,1.000183E1,4.072975E0,4.2122307E0,3.195961E0,9.728639E0,5.2969437E0,4.4947004E0,0E0,2.528421E0,0E0,6.707001E-2,0E0,5.1732244E0,1.1209284E1,1.9547005E0,6.639794E0,0E0,0E0,9.5033944E-1,0E0,2.981933E0,0E0,0E0,0E0,0E0,0E0,0E0,0E0,0E0,0E0,0E0,0E0,0E0,0E0],"parents":[2147483647,0,0,1,1,2,2,3,3,4,4,5,5,6,6,7,7,8,8,9,9,11,11,13,13,15,15,16,16,17,17,18,18,21,21,23,23],"right_children":[2,4,6,8,10,12,14,16,18,20,-1,22,-1,24,-1,26,28,30,32,-1,-1,34,-1,36,-1,-1,-1,-1,-1,-1,-1,-1,-1,-1,-1,-1,-1],"split_conditions":[3.119729E-1,1.5437768E0,-5.988082E-1,1.281776E0,1.2981844E0,-2.8553468E-3,1.281776E0,2.0466116E-1,-6.9776654E-1,9.2941535E-1,1.7646147E-1,9.3464553E-1,-3.305969E-1,-9.948195E-1,1.112988E-1,8.5945153E-1,4.8607063E-1,3.198918E-1,3.0790156E-1,-4.1423243E-1,1.2020077E-1,6.990397E-1,-2.4194111E-1,1.5437768E0,-3.694049E-1,1.8610767E-1,-6.7675277E-3,-3.8310596E-1,5.564459E-3,1.8129472E-1,3.2767868E-1,-4.555217E-1,1.3649231E-1,1.3625842E-2,2.7981344E-1,9.175929E-3,-3.4098026E-1],"split_indices":[0,5,5,1,4,2,1,5,0,2,0,0,0,3,0,6,3,4,2,0,0,0,0,5,0,0,0,0,0,0,0,0,0,0,0,0,0],"split_type":[0,0,0,0,0,0,0,0,0,0,0,0,0,0,0,0,0,0,0,0,0,0,0,0,0,0,0,0,0,0,0,0,0,0,0,0,0],"sum_hessian":[2.0815276E2,1.6440067E2,4.3752094E1,1.5347491E2,1.0925745E1,9.309284E0,3.444281E1,9.6554E1,5.6920914E1,9.831817E0,1.0939277E0,5.5444975E0,3.764787E0,3.3296673E1,1.1461363E0,5.674143E1,3.9812572E1,5.0474403E1,6.4465094E0,8.487074E0,1.3447434E0,4.463163E0,1.0813346E0,1.0817466E1,2.2479208E1,3.5758827E1,2.0982603E1,8.2333975E0,3.1579174E1,3.517314E1,1.5301263E1,1.693381E0,4.7531285E0,2.4567037E0,2.006459E0,3.1406913E0,7.676775E0],"tree_param":{"num_deleted":"0","num_feature":"8","num_nodes":"37","size_leaf_vector":"1"}},{"base_weights":[-2.2540256E-2,1.6548175E-1,-8.0151814E-1,-6.8087107E-1,2.3491436E-1,-3.195912E-1,-9.3117225E-1,-9.8091334E-1,3.6055264E-1,1.3716216E-1,7.498859E-1,1.4374746E-1,-2.9514956E-1,-9.91206E-1,9.494116E-2,-3.7812814E-1,-4.1525233E-1,7.3503065E-3,1.822622E-1,-3.1573886E-1,2.7851793E-1,6.8743564E-2,9.153775E-1,4.1328025E-1,-9.886648E-2,-6.88963E-1,-3.4305537E-1,1.3434595E-1,-2.7478844E-1,-2.1963497E-1,1.0132845E-1,1.2990959E-1,-9.875453E-3,-2.978839E-1,1.7001271E-1,3.594031E-1,8.562643E-2,-5.158156E-3,1.7882395E-1,3.1221477E-2,-3.1966287E-1],"categories":[],"categories_nodes":[],"categories_segments":[],"categories_sizes":[],"default_left":[0,0,0,0,0,0,0,0,0,0,0,0,0,0,0,0,0,0,0,0,0,0,0,0,0,0,0,0,0,0,0,0,0,0,0,0,0,0,0,0,0],"id":4,"left_children":[1,3,5,7,9,11,13,15,17,19,21,23,-1,25,-1,-1,27,-1,-1,29,31,33,35,37,-1,39,-1,-1,-1,-1,-1,-1,-1,-1,-1,-1,-1,-1,-1,-1,-1],"loss_changes":[2.821453E1,9.284901E0,2.0424862E0,4.112533E0,7.158661E0,2.9038582E0,2.4559288E0,7.8305626E-1,2.472727E-1,7.927922E0,2.5059786E0,9.196505E-1,0E0,1.983738E-1,0E0,0E0,2.1187382E0,0E0,0E0,7.6772523E0,4.090162E0,3.2518454E0,2.510126E0,3.1959742E-1,0E0,2.8711557E0,0E0,0E0,0E0,0E0,0E0,0E0,0E0,0E0,0E0,0E0,0E0,0E0,0E0,0E0,0E0],"parents":[2147483647,0,0,1,1,2,2,3,3,4,4,5,5,6,6,7,7,8,8,9,9,10,10,11,11,13,13,16,16,19,19,20,20,21,21,22,22,23,23,25,25],"right_children":[2,4,6,8,10,12,14,16,18,20,22,24,-1,26,-1,-1,28,-1,-1,30,32,34,36,38,-1,40,-1,-1,-1,-1,-1,-1,-1,-1,-1,-1,-1,-1,-1,-1,-1],"split_conditions":[3.119729E-1,-5.011895E-1,-5.988082E-1,6.186584E-1,1.2310776E0,-2.8553468E-3,1.281776E0,1.8969954E0,1.5509292E0,3.085205E-1,-1.2362943E0,8.0001366E-1,-2.9514956E-1,-9.948195E-1,9.494116E-2,-3.7812814E-1,-8.9971447E-1,7.3503065E-3,1.822622E-1,1.8969954E0,-6.4727956E-1,1.281776E0,-5.2947664E-1,5.307498E-1,-9.886648E-2,-1.5290387E-1,-3.4305537E-1,1.3434595E-1,-2.7478844E-1,-2.1963497E-1,1.0132845E-1,1.2990959E-1,-9.875453E-3,-2.978839E-1,1.7001271E-1,3.594031E-1,8.562643E-2,-5.158156E-3,1.7882395E-1,3.1221477E-2,-3.1966287E-1],"split_indices":[0,3,5,2,4,2,1,7,2,1,0,0,0,3,0,0,0,0,0,7,0,1,0,0,0,4,0,0,0,0,0,0,0,0,0,0,0,0,0,0,0],"split_type":[0,0,0,0,0,0,0,0,0,0,0,0,0,0,0,0,0,0,0,0,0,0,0,0,0,0,0,0,0,0,0,0,0,0,0,0,0,0,0,0,0],"sum_hessian":[1.9073111E2,1.5428008E2,3.645104E1,1.1029472E1,1.4325061E2,8.462118E0,2.798892E1,8.607646E0,2.4218261E0,1.21461136E2,2.1789473E1,5.3252115E0,3.1369073E0,2.6882956E1,1.1059629E0,5.252261E0,3.3553846E0,1.4179955E0,1.0038307E0,2.8598495E1,9.286264E1,4.5358562E0,1.7253616E1,3.4306395E0,1.8945719E0,9.286484E0,1.7596472E1,1.224586E0,2.1307986E0,1.7698742E1,1.0899753E1,6.3758507E1,2.910413E1,1.1223538E0,3.4135025E0,1.1924337E1,5.329278E0,1.1887822E0,2.241857E0,3.0122411E0,6.274243E0],"tree_param":{"num_deleted":"0","num_feature":"8","num_nodes":"41","size_leaf_vector":"1"}},{"base_weights":[-2.4859637E-2,8.513271E-2,-9.578027E-1,1.7970587E-1,-5.112173E-1,-1.0496569E0,1.0053955E-1,5.5817418E-2,4.0508822E-1,-2.531321E-1,-3.0861387E-1,-3.6295742E-1,1.4594334E-2,-3.606417E-1,1.1638853E-1,7.644992E-1,1.7184873E-1,-4.5386708E-1,4.04611E-1,-3.754715E-2,1.2131571E-1,3.286253E-1,1.2056889E-1,-4.2974196E-2,2.3267958E-1,-3.076883E-1,-3.6618188E-2],"categories":[],"categories_nodes":[],"categories_segments":[],"categories_sizes":[],"default_left":[0,0,0,0,0,0,0,0,0,0,0,0,0,0,0,0,0,0,0,0,0,0,0,0,0,0,0],"id":5,"left_children":[1,3,5,7,9,11,-1,13,15,17,-1,-1,-1,-1,19,21,23,25,-1,-1,-1,-1,-1,-1,-1,-1,-1],"loss_changes":[1.8284079E1,9.092801E0,2.5519562E0,3.8443255E0,2.50346E0,2.3843975E0,0E0,6.8114057E0,3.9731493E0,5.5119276E0,0E0,0E0,0E0,0E0,5.7228227E0,1.6882973E0,5.6574106E0,2.5344772E0,0E0,0E0,0E0,0E0,0E0,0E0,0E0,0E0,0E0],"parents":[2147483647,0,0,1,1,2,2,3,3,4,4,5,5,7,7,8,8,9,9,14,14,15,15,16,16,17,17],"right_children":[2,4,6,8,10,12,-1,14,16,18,-1,-1,-1,-1,20,22,24,26,-1,-1,-1,-1,-1,-1,-1,-1,-1],"split_conditions":[1.5437768E0,3.119729E-1,1.3427985E0,1.281776E0,1.1365935E0,1.2401723E0,1.0053955E-1,-1.3204392E0,-1.1689783E0,1.1197644E0,-3.0861387E-1,-3.6295742E-1,1.4594334E-2,-3.606417E-1,9.2941535E-1,5.4501984E-2,2.6478013E-1,4.8607063E-1,4.04611E-1,-3.754715E-2,1.2131571E-1,3.286253E-1,1.2056889E-1,-4.2974196E-2,2.3267958E-1,-3.076883E-1,-3.6618188E-2],"split_indices":[5,0,4,1,0,2,0,0,0,0,0,0,0,0,2,4,4,3,0,0,0,0,0,0,0,0,0],"split_type":[0,0,0,0,0,0,0,0,0,0,0,0,0,0,0,0,0,0,0,0,0,0,0,0,0,0,0],"sum_hessian":[1.7638393E2,1.5859465E2,1.7789282E1,1.3748933E2,2.1105318E1,1.6768547E1,1.0207337E0,8.9526146E1,4.796319E1,1.4747892E1,6.357426E0,1.506072E1,1.7078277E0,3.3811405E0,8.6145004E1,1.7979652E1,2.9983534E1,1.3690684E1,1.0572081E0,4.6492264E1,3.965274E1,9.071445E0,8.908208E0,2.0001066E1,9.982468E0,4.5162144E0,9.17447E0],"tree_param":{"num_deleted":"0","num_feature":"8","num_nodes":"27","size_leaf_vector":"1"}},{"base_weights":[-2.2488927E-2,6.2227815E-2,-8.611503E-1,-2.2129478E-1,2.0445967E-1,-9.595238E-1,8.5550465E-2,-6.665847E-2,-6.517412E-1,4.1146466E-1,-1.0374001E-2,-3.4043655E-1,1.1728607E-2,-4.4044775E-1,2.4521048E-1,4.0396976E-1,-8.945509E-1,9.796493E-1,3.0174342E-1,-3.5058478E-1,5.5621423E-2,5.3275697E-2,-4.091191E-1,-2.7337882E-1,1.0835635E-1,3.475091E-1,-1.7748655E-1,8.3517535E-3,-3.226921E-1,7.609885E-2,3.4679964E-1,1.3732962E-1,-1.2306038E-2,5.0809037E-2,-1.9441694E-1],"categories":[],"categories_nodes":[],"categories_segments":[],"categories_sizes":[],"default_left":[0,0,0,0,0,0,0,0,0,0,0,0,0,0,0,0,0,0,0,0,0,0,0,0,0,0,0,0,0,0,0,0,0,0,0],"id":6,"left_children":[1,3,5,7,9,11,-1,13,15,17,19,-1,-1,21,23,25,27,29,31,-1,33,-1,-1,-1,-1,-1,-1,-1,-1,-1,-1,-1,-1,-1,-1],"loss_changes":[1.1944631E1,6.2127857E0,1.989048E0,3.389436E0,4.556767E0,2.0131283E0,0E0,4.6609783E0,3.82625E0,2.9560757E0,3.8444965E0,0E0,0E0,9.958987E0,2.8716664E0,2.885363E0,1.537221E0,5.33803E-1,2.1858363E0,0E0,3.7356946E0,0E0,0E0,0E0,0E0,0E0,0E0,0E0,0E0,0E0,0E0,0E0,0E0,0E0,0E0],"parents":[2147483647,0,0,1,1,2,2,3,3,4,4,5,5,7,7,8,8,9,9,10,10,13,13,14,14,15,15,16,16,17,17,18,18,20,20],"right_children":[2,4,6,8,10,12,-1,14,16,18,20,-1,-1,22,24,26,28,30,32,-1,34,-1,-1,-1,-1,-1,-1,-1,-1,-1,-1,-1,-1,-1,-1],"split_conditions":[1.5437768E0,3.085205E-1,1.3427985E0,5.4757875E-1,-8.323985E-1,1.2401723E0,8.5550465E-2,1.3070287E-1,-9.948195E-1,-8.468863E-1,-7.482535E-1,-3.4043655E-1,1.1728607E-2,-4.4604984E-1,-6.6473496E-1,-1.5290387E-1,-6.6473496E-1,-1.5714027E0,2.2550313E0,-3.5058478E-1,4.1418687E-1,5.3275697E-2,-4.091191E-1,-2.7337882E-1,1.0835635E-1,3.475091E-1,-1.7748655E-1,8.3517535E-3,-3.226921E-1,7.609885E-2,3.4679964E-1,1.3732962E-1,-1.2306038E-2,5.0809037E-2,-1.9441694E-1],"split_indices":[5,1,4,0,0,2,0,4,3,4,0,0,0,4,1,4,1,4,1,0,4,0,0,0,0,0,0,0,0,0,0,0,0,0,0],"split_type":[0,0,0,0,0,0,0,0,0,0,0,0,0,0,0,0,0,0,0,0,0,0,0,0,0,0,0,0,0,0,0,0,0,0,0],"sum_hessian":[1.6636478E2,1.5194225E2,1.4422529E1,5.057367E1,1.01368576E2,1.3417288E1,1.005242E0,3.805677E1,1.2516897E1,5.1158783E1,5.0209793E1,1.1707852E1,1.7094349E0,1.7122446E1,2.0934324E1,2.2164173E0,1.030048E1,6.996955E0,4.416183E1,1.8990183E0,4.8310776E1,1.0560444E1,6.562003E0,1.1360624E0,1.9798262E1,1.1937577E0,1.0226595E0,1.5106972E0,8.789783E0,1.5420945E0,5.45486E0,3.1067362E1,1.3094467E1,4.2358788E1,5.9519877E0],"tree_param":{"num_deleted":"0","num_feature":"8","num_nodes":"35","size_leaf_vector":"1"}},{"base_weights":[-2.5903733E-2,3.927732E-2,-7.726528E-1,7.189449E-2,-2.7287036E-1,-2.0739767E-1,-3.0850965E-1,-2.7576748E-2,2.8929204E-1,-2.8747866E-1,2.2595991E-1,1.5853442E-1,-2.7928513E-1,1.3834397E-1,8.088009E-1,1.1197934E-1,-5.450647E-2,-3.27376E-1,-3.423295E-2,1.6078652E-1,-4.2393193E-2,2.9387096E-1,6.9322094E-2],"categories":[],"categories_nodes":[],"categories_segments":[],"categories_sizes":[],"default_left":[0,0,0,0,0,0,0,0,0,0,0,0,0,0,0,0,0,0,0,0,0,0,0],"id":7,"left_children":[1,3,5,7,-1,9,-1,11,13,-1,-1,15,17,19,21,-1,-1,-1,-1,-1,-1,-1,-1],"loss_changes":[7.7421618E0,4.456223E0,1.3899474E0,3.0908988E0,0E0,3.9368591E0,0E0,4.6690497E0,3.4044604E0,0E0,0E0,3.9406066E0,5.4300723E0,3.8224158E0,5.8675814E-1,0E0,0E0,0E0,0E0,0E0,0E0,0E0,0E0],"parents":[2147483647,0,0,1,1,2,2,3,3,5,5,7,7,8,8,11,11,12,12,13,13,14,14],"right_children":[2,4,6,8,-1,10,-1,12,14,-1,-1,16,18,20,22,-1,-1,-1,-1,-1,-1,-1,-1],"split_conditions":[1.5437768E0,1.1365935E0,-6.4727956E-1,1.281776E0,-2.7287036E-1,-7.819115E-1,-3.0850965E-1,2.0466116E-1,7.1711224E-1,-2.8747866E-1,2.2595991E-1,8.5945153E-1,-7.090063E-1,-3.8234663E-1,2.0508678E0,1.1197934E-1,-5.450647E-2,-3.27376E-1,-3.423295E-2,1.6078652E-1,-4.2393193E-2,2.9387096E-1,6.9322094E-2],"split_indices":[5,0,0,1,0,0,0,5,4,0,0,6,4,4,4,0,0,0,0,0,0,0,0],"split_type":[0,0,0,0,0,0,0,0,0,0,0,0,0,0,0,0,0,0,0,0,0,0,0],"sum_hessian":[1.5743843E2,1.4567075E2,1.1767676E1,1.4156412E2,4.106641E0,3.8542433E0,7.9134326E0,9.772345E1,4.384066E1,2.1851034E0,1.6691397E0,5.6395348E1,4.1328106E1,3.495148E1,8.889177E0,3.508471E1,2.1310637E1,6.45903E0,3.4869076E1,1.430901E1,2.0642471E1,6.6958528E0,2.1933246E0],"tree_param":{"num_deleted":"0","num_feature":"8","num_nodes":"23","size_leaf_vector":"1"}},{"base_weights":[-2.2865511E-2,2.8402695E-2,-7.12625E-1,5.423384E-2,-2.544802E-1,-8.458881E-1,1.5939478E-2,6.4383785E-4,3.777259E-1,-3.0464587E-1,3.4625184E-2,7.042127E-2,-5.9131694E-1,7.40915E-1,4.2485617E-4,-1.901814E-2,9.0140045E-2,-5.0062037E-1,-1.5151996E-2,7.411376E-2,2.6514304E-1,1.380171E-1,-2.4984612E-1],"categories":[],"categories_nodes":[],"categories_segments":[],"categories_sizes":[],"default_left":[0,0,0,0,0,0,0,0,0,0,0,0,0,0,0,0,0,0,0,0,0,0,0],"id":8,"left_children":[1,3,5,7,-1,9,-1,11,13,-1,-1,15,17,19,21,-1,-1,-1,-1,-1,-1,-1,-1],"loss_changes":[5.3733907E0,3.1526215E0,1.1135974E0,2.4027236E0,0E0,1.2777638E0,0E0,4.9947653E0,2.6988626E0,0E0,0E0,3.1506119E0,6.986334E0,3.6655092E-1,4.17119E0,0E0,0E0,0E0,0E0,0E0,0E0,0E0,0E0],"parents":[2147483647,0,0,1,1,2,2,3,3,5,5,7,7,8,8,11,11,12,12,13,13,14,14],"right_children":[2,4,6,8,-1,10,-1,12,14,-1,-1,16,18,20,22,-1,-1,-1,-1,-1,-1,-1,-1],"split_conditions":[1.5437768E0,1.1365935E0,1.2401723E0,1.2310776E0,-2.544802E-1,1.0290713E0,1.5939478E-2,5.005554E-1,-1.7792712E-1,-3.0464587E-1,3.4625184E-2,1.2401723E0,7.1711224E-1,4.8607063E-1,-5.2947664E-1,-1.901814E-2,9.0140045E-2,-5.0062037E-1,-1.5151996E-2,7.411376E-2,2.6514304E-1,1.380171E-1,-2.4984612E-1],"split_indices":[5,0,2,4,0,4,0,4,6,0,0,2,4,3,0,0,0,0,0,0,0,0,0],"split_type":[0,0,0,0,0,0,0,0,0,0,0,0,0,0,0,0,0,0,0,0,0,0,0],"sum_hessian":[1.503783E2,1.4086682E2,9.511478E0,1.3761186E2,3.254967E0,8.007472E0,1.5040064E0,1.18914375E2,1.869748E1,6.992998E0,1.0144736E0,1.07163506E2,1.1750871E1,9.035859E0,9.66162E0,6.74826E1,3.9680912E1,3.3921456E0,8.358725E0,2.2340205E0,6.8018384E0,6.5155787E0,3.1460414E0],"tree_param":{"num_deleted":"0","num_feature":"8","num_nodes":"23","size_leaf_vector":"1"}},{"base_weights":[-2.2746991E-2,-2.515112E-1,9.220083E-2,-2.8956035E-1,-1.6973272E-1,-6.0170114E-1,1.4137113E-1,9.7235665E-2,-3.7536666E-1,-3.3612937E-1,-2.3583362E-1,1.005538E-1,7.928854E-1,-2.824664E-1,2.8838643E-1,-9.418254E-1,-4.609743E-2,1.401484E-1,-2.6126876E-1,7.371151E-2,2.571711E-1,5.2016824E-2,2.8242815E-1,1.6888188E-1,-1.3023402E-1,-1.3184362E-2,-3.4272853E-1,2.1068062E-1,-1.16097026E-1,3.650894E-2,-2.2498515E-1],"categories":[],"categories_nodes":[],"categories_segments":[],"categories_sizes":[],"default_left":[0,0,0,0,0,0,0,0,0,0,0,0,0,0,0,0,0,0,0,0,0,0,0,0,0,0,0,0,0,0,0],"id":9,"left_children":[1,3,5,-1,7,9,11,13,15,-1,17,19,21,-1,23,25,27,-1,-1,29,-1,-1,-1,-1,-1,-1,-1,-1,-1,-1,-1],"loss_changes":[3.8774755E0,2.5875418E0,3.4385366E0,0E0,2.5193589E0,9.22863E-1,2.382591E0,4.2038016E0,4.7601566E0,0E0,2.4953868E0,1.6637111E0,2.3599696E-1,0E0,3.4795642E0,1.3267155E0,4.374113E0,0E0,0E0,3.1077044E0,0E0,0E0,0E0,0E0,0E0,0E0,0E0,0E0,0E0,0E0,0E0],"parents":[2147483647,0,0,1,1,2,2,4,4,5,5,6,6,7,7,8,8,10,10,11,11,12,12,14,14,15,15,16,16,19,19],"right_children":[2,4,6,-1,8,10,12,14,16,-1,18,20,22,-1,24,26,28,-1,-1,30,-1,-1,-1,-1,-1,-1,-1,-1,-1,-1,-1],"split_conditions":[3.085205E-1,-1.245883E0,-5.011895E-1,-2.8956035E-1,-2.8553468E-3,-1.7792712E-1,2.1860502E0,-6.9776654E-1,1.2401723E0,-3.3612937E-1,8.5945153E-1,6.1489475E-1,-1.2362943E0,-2.824664E-1,8.5945153E-1,-7.819115E-1,-4.8905566E-1,1.401484E-1,-2.6126876E-1,2.588005E-2,2.571711E-1,5.2016824E-2,2.8242815E-1,1.6888188E-1,-1.3023402E-1,-1.3184362E-2,-3.4272853E-1,2.1068062E-1,-1.16097026E-1,3.650894E-2,-2.2498515E-1],"split_indices":[1,2,3,0,2,6,4,0,2,0,6,0,0,0,6,0,4,0,0,0,0,0,0,0,0,0,0,0,0,0,0],"split_type":[0,0,0,0,0,0,0,0,0,0,0,0,0,0,0,0,0,0,0,0,0,0,0,0,0,0,0,0,0,0,0],"sum_hessian":[1.455734E2,4.828688E1,9.7286514E1,4.0599117E0,4.422697E1,5.694031E0,9.159248E1,1.9472958E1,2.4754013E1,1.6132717E0,4.080759E0,8.727881E1,4.3136735E0,2.5064774E0,1.696648E1,8.415702E0,1.6338312E1,2.0311308E0,2.0496283E0,8.523675E1,2.0420606E0,1.0626824E0,3.2509913E0,1.2635255E1,4.331225E0,1.4787552E0,6.9369464E0,4.755932E0,1.158238E1,8.1603325E1,3.6334257E0],"tree_param":{"num_deleted":"0","num_feature":"8","num_nodes":"31","size_leaf_vector":"1"}},{"base_weights":[-2.52044E-2,3.5838832E-3,-2.5877342E-1,-1.185325E-2,2.8431034E-1,-5.2070457E-1,2.616906E-2,-8.040402E-1,2.370407E-1,-2.5417745E-2,3.5623974E-1,-3.1958273E-1,-8.902255E-2,-3.0423162E-4,1.2178885E-1,2.103831E-3,-3.0596912E-1,2.1653402E-1,5.782727E-4],"categories":[],"categories_nodes":[],"categories_segments":[],"categories_sizes":[],"default_left":[0,0,0,0,0,0,0,0,0,0,0,0,0,0,0,0,0,0,0],"id":10,"left_children":[1,3,-1,5,-1,7,9,11,13,15,17,-1,-1,-1,-1,-1,-1,-1,-1],"loss_changes":[3.2752376E0,1.9369508E0,0E0,2.6348646E0,0E0,2.223199E0,2.1717458E0,5.3487015E-1,1.2415895E-1,3.4312558E0,2.0830796E0,0E0,0E0,0E0,0E0,0E0,0E0,0E0,0E0],"parents":[2147483647,0,0,1,1,3,3,5,5,6,6,7,7,8,8,9,9,10,10],"right_children":[2,4,-1,6,-1,8,10,12,14,16,18,-1,-1,-1,-1,-1,-1,-1,-1],"split_conditions":[1.1365935E0,1.1197644E0,-2.5877342E-1,-5.011895E-1,2.8431034E-1,1.2401723E0,1.2310776E0,1.8969954E0,1.9327042E-1,9.2583954E-1,-1.7792712E-1,-3.1958273E-1,-8.902255E-2,-3.0423162E-4,1.2178885E-1,2.103831E-3,-3.0596912E-1,2.1653402E-1,5.782727E-4],"split_indices":[0,0,0,3,0,2,4,7,4,4,6,0,0,0,0,0,0,0,0],"split_type":[0,0,0,0,0,0,0,0,0,0,0,0,0,0,0,0,0,0,0],"sum_hessian":[1.3960867E2,1.3576923E2,3.8394563E0,1.3448059E2,1.2886333E0,8.467368E0,1.2601322E2,6.118461E0,2.3489068E0,1.09778854E2,1.6234365E1,3.5716624E0,2.5467987E0,1.319694E0,1.0292127E0,1.0717821E2,2.6006527E0,7.7766876E0,8.457677E0],"tree_param":{"num_deleted":"0","num_feature":"8","num_nodes":"19","size_leaf_vector":"1"}},{"base_weights":[-2.1399306E-2,2.8085737E-2,-3.9482835E-1,-2.005784E-2,6.2250525E-1,-2.7462426E-1,-1.7361467E-1,2.9123226E-2,-9.900901E-1,-1.5303741E-1,1.3104638E0,2.9965442E-1,-5.255918E-1,-1.5353526E-3,6.869802E-1,9.9866904E-2,-4.203327E-1,-3.172966E-1,2.736479E-1,4.6861207E-1,8.256664E-2,-2.2987396E-1,-2.7463093E-1,2.2104472E-2,-1.01588584E-1,1.0889708E-2,2.965066E-1,-2.1233608E-1,2.1481827E-2],"categories":[],"categories_nodes":[],"categories_segments":[],"categories_sizes":[],"default_left":[0,0,0,0,0,0,0,0,0,0,0,0,0,0,0,0,0,0,0,0,0,0,0,0,0,0,0,0,0],"id":11,"left_children":[1,3,5,7,9,-1,11,13,15,17,19,-1,21,23,25,-1,-1,-1,-1,-1,-1,27,-1,-1,-1,-1,-1,-1,-1],"loss_changes":[2.5640957E0,3.5302622E0,1.6052365E0,5.500034E0,5.131117E0,0E0,5.488557E0,2.2220678E0,3.0911412E0,5.6118116E0,6.3855076E-1,0E0,8.733623E-1,2.539805E0,8.240833E-1,0E0,0E0,0E0,0E0,0E0,0E0,9.860532E-1,0E0,0E0,0E0,0E0,0E0,0E0,0E0],"parents":[2147483647,0,0,1,1,2,2,3,3,4,4,6,6,7,7,8,8,9,9,10,10,12,12,13,13,14,14,21,21],"right_children":[2,4,6,8,10,-1,12,14,16,18,20,-1,22,24,26,-1,-1,-1,-1,-1,-1,28,-1,-1,-1,-1,-1,-1,-1],"split_conditions":[3.119729E-1,1.7734097E-1,-2.629151E-1,2.588005E-2,8.5945153E-1,-2.7462426E-1,-1.5290387E-1,-4.1435912E-2,-7.559419E-3,1.0589563E0,2.8517553E-1,2.9965442E-1,8.5945153E-1,-4.1167372E-1,3.085205E-1,9.9866904E-2,-4.203327E-1,-3.172966E-1,2.736479E-1,4.6861207E-1,8.256664E-2,4.8607063E-1,-2.7463093E-1,2.2104472E-2,-1.01588584E-1,1.0889708E-2,2.965066E-1,-2.1233608E-1,2.1481827E-2],"split_indices":[0,0,4,0,6,0,4,0,3,4,4,0,6,0,1,0,0,0,0,0,0,3,0,0,0,0,0,0,0],"split_type":[0,0,0,0,0,0,0,0,0,0,0,0,0,0,0,0,0,0,0,0,0,0,0,0,0,0,0,0,0],"sum_hessian":[1.3715604E2,1.21924034E2,1.5232004E1,1.1368283E2,8.24121E0,3.8058434E0,1.1426161E1,1.0912035E2,4.5624733E0,4.2395124E0,4.0016975E0,2.286208E0,9.139953E0,1.0521463E2,3.9057267E0,1.0160758E0,3.5463977E0,2.3105428E0,1.9289696E0,2.9871037E0,1.0145938E0,5.9116397E0,3.228313E0,8.6645645E1,1.8568981E1,1.4679456E0,2.437781E0,1.8362818E0,4.075358E0],"tree_param":{"num_deleted":"0","num_feature":"8","num_nodes":"29","size_leaf_vector":"1"}},{"base_weights":[-1.7346475E-2,1.0294203E-2,-5.452386E-1,-4.0468046E-1,3.413372E-2,-7.1782106E-1,2.0055352E-2,-3.331166E-1,2.7517372E-1,3.0970636E-1,-4.8144914E-2,-2.5704587E-1,-4.49845E-2,2.1399498E-1,-7.365587E-2,6.062242E-1,2.224706E-2,-2.1896027E-1,1.18727505E-1,-1.0478458E-1,6.956588E-2,3.051772E-1,4.707307E-2,-1.4064775E-1,1.668608E-1,-2.8784746E-2,-3.1961164E-1,1.0629035E-1,-6.464347E-2],"categories":[],"categories_nodes":[],"categories_segments":[],"categories_sizes":[],"default_left":[0,0,0,0,0,0,0,0,0,0,0,0,0,0,0,0,0,0,0,0,0,0,0,0,0,0,0,0,0],"id":12,"left_children":[1,3,5,7,9,11,-1,-1,13,15,17,-1,-1,-1,19,21,23,25,27,-1,-1,-1,-1,-1,-1,-1,-1,-1,-1],"loss_changes":[1.9633067E0,1.2847852E0,7.509191E-1,3.502246E0,2.7905633E0,2.1464777E-1,0E0,0E0,6.7124015E-1,2.3971095E0,2.737785E0,0E0,0E0,0E0,3.29797E-1,2.229248E0,4.014719E0,4.751194E0,3.638032E0,0E0,0E0,0E0,0E0,0E0,0E0,0E0,0E0,0E0,0E0],"parents":[2147483647,0,0,1,1,2,2,3,3,4,4,5,5,8,8,9,9,10,10,14,14,15,15,16,16,17,17,18,18],"right_children":[2,4,6,8,10,12,-1,-1,14,16,18,-1,-1,-1,20,22,24,26,28,-1,-1,-1,-1,-1,-1,-1,-1,-1,-1],"split_conditions":[1.5437768E0,-1.3372682E0,1.2401723E0,1.281776E0,-1.0006884E0,3.7258518E-1,2.0055352E-2,-3.331166E-1,-1.4214132E0,5.4501984E-2,1.1573077E-1,-2.5704587E-1,-4.49845E-2,2.1399498E-1,2.1773605E-1,-1.2362943E0,3.713667E-1,-5.1094674E-2,4.1418687E-1,-1.0478458E-1,6.956588E-2,3.051772E-1,4.707307E-2,-1.4064775E-1,1.668608E-1,-2.8784746E-2,-3.1961164E-1,1.0629035E-1,-6.464347E-2],"split_indices":[5,0,2,1,0,4,0,0,0,4,4,0,0,0,4,0,4,4,4,0,0,0,0,0,0,0,0,0,0],"split_type":[0,0,0,0,0,0,0,0,0,0,0,0,0,0,0,0,0,0,0,0,0,0,0,0,0,0,0,0,0],"sum_hessian":[1.3316861E2,1.2747449E2,5.694124E0,6.0574374E0,1.2141705E2,4.3001466E0,1.3939776E0,2.7628155E0,3.294622E0,2.728117E1,9.413588E1,3.2329688E0,1.0671777E0,1.0599556E0,2.2346663E0,1.2883144E1,1.43980255E1,4.6364113E1,4.7771767E1,1.1138431E0,1.1208233E0,6.408238E0,6.474906E0,7.5521054E0,6.84592E0,4.1080986E1,5.2831287E0,2.8338808E1,1.9432959E1],"tree_param":{"num_deleted":"0","num_feature":"8","num_nodes":"29","size_leaf_vector":"1"}},{"base_weights":[-1.3301735E-2,5.2257786E-3,-2.2470324E-1,-3.3740807E-1,3.5132285E-2,-9.52929E-1,3.0423698E-1,-1.0478815E-2,2.3381267E-1,-3.7139624E-1,-1.801533E-2,-1.732403E-1,1.9034243E-1,4.603503E-2,-4.117211E-1,-5.708861E-1,3.7939897E-1,-4.412012E-3,1.08227484E-1,-3.1907317E-1,-2.5857268E-3,2.0979942E-1,-1.4783707E-2],"categories":[],"categories_nodes":[],"categories_segments":[],"categories_sizes":[],"default_left":[0,0,0,0,0,0,0,0,0,0,0,0,0,0,0,0,0,0,0,0,0,0,0],"id":13,"left_children":[1,3,-1,5,7,9,11,13,15,-1,-1,-1,-1,17,-1,19,21,-1,-1,-1,-1,-1,-1],"loss_changes":[1.726323E0,1.3287456E0,0E0,4.401755E0,1.081774E0,1.1409793E0,1.9019203E0,7.3353143E0,2.8268259E0,0E0,0E0,0E0,0E0,1.7325369E0,0E0,9.7152483E-1,2.4964683E0,0E0,0E0,0E0,0E0,0E0,0E0],"parents":[2147483647,0,0,1,1,3,3,4,4,5,5,6,6,7,7,8,8,13,13,15,15,16,16],"right_children":[2,4,-1,6,8,10,12,14,16,-1,-1,-1,-1,18,-1,20,22,-1,-1,-1,-1,-1,-1],"split_conditions":[1.1365935E0,-6.2436914E-1,-2.2470324E-1,1.8969954E0,7.1711224E-1,1.281776E0,4.8607063E-1,5.005554E-1,-1.2362943E0,-3.7139624E-1,-1.801533E-2,-1.732403E-1,1.9034243E-1,2.4578649E-1,-4.117211E-1,1.281776E0,1.2401723E0,-4.412012E-3,1.08227484E-1,-3.1907317E-1,-2.5857268E-3,2.0979942E-1,-1.4783707E-2],"split_indices":[0,2,0,7,4,1,3,4,0,0,0,0,0,4,0,1,2,0,0,0,0,0,0],"split_type":[0,0,0,0,0,0,0,0,0,0,0,0,0,0,0,0,0,0,0,0,0,0,0],"sum_hessian":[1.2984746E2,1.2751511E2,2.3323555E0,9.411141E0,1.18103966E2,4.555745E0,4.855396E0,9.682344E1,2.128052E1,3.3165815E0,1.2391638E0,1.0679185E0,3.7874773E0,9.37614E1,3.0620444E0,2.812685E0,1.8467834E1,7.8987946E1,1.4773452E1,1.0956464E0,1.7170386E0,1.05568285E1,7.9110065E0],"tree_param":{"num_deleted":"0","num_feature":"8","num_nodes":"23","size_leaf_vector":"1"}},{"base_weights":[-1.8435316E-2,-3.2816334E-3,-2.0851582E-1,-1.5520833E-2,1.9857883E-1,-3.4559962E-1,2.0138428E-2,-1.0484356E0,1.1257608E-1,2.152233E-1,-6.382457E-2,-1.1547745E-1,-3.8617754E-1,-2.3333922E-1,1.3432993E-1,9.275409E-3,2.872127E-1,-3.5449946E-1,4.83381E-3],"categories":[],"categories_nodes":[],"categories_segments":[],"categories_sizes":[],"default_left":[0,0,0,0,0,0,0,0,0,0,0,0,0,0,0,0,0,0,0],"id":14,"left_children":[1,3,-1,5,-1,7,9,11,13,15,17,-1,-1,-1,-1,-1,-1,-1,-1],"loss_changes":[1.2608228E0,9.9911124E-1,0E0,1.4703497E0,0E0,4.039296E0,1.8671448E0,1.857791E-1,2.6146505E0,4.4826107E0,6.85511E0,0E0,0E0,0E0,0E0,0E0,0E0,0E0,0E0],"parents":[2147483647,0,0,1,1,3,3,5,5,6,6,7,7,8,8,9,9,10,10],"right_children":[2,4,-1,6,-1,8,10,12,14,16,18,-1,-1,-1,-1,-1,-1,-1,-1],"split_conditions":[1.1365935E0,1.1197644E0,-2.0851582E-1,-3.1361225E-1,1.9857883E-1,-1.6073938E-1,-4.4604984E-1,-8.6698675E-1,4.8607063E-1,-5.237016E-1,-3.0974466E-1,-1.1547745E-1,-3.8617754E-1,-2.3333922E-1,1.3432993E-1,9.275409E-3,2.872127E-1,-3.5449946E-1,4.83381E-3],"split_indices":[0,0,0,2,0,4,4,4,3,4,4,0,0,0,0,0,0,0,0],"split_type":[0,0,0,0,0,0,0,0,0,0,0,0,0,0,0,0,0,0,0],"sum_hessian":[1.2658772E2,1.2470007E2,1.8876495E0,1.23328316E2,1.3717593E0,1.1177005E1,1.1215131E2,3.9024353E0,7.27457E0,3.3274937E1,7.887637E1,1.5260421E0,2.376393E0,1.6020097E0,5.67256E0,2.721292E1,6.062018E0,4.4922533E0,7.438412E1],"tree_param":{"num_deleted":"0","num_feature":"8","num_nodes":"19","size_leaf_vector":"1"}},{"base_weights":[-1.8685097E-2,-1.6278796E-1,4.5287766E-2,2.3963286E-1,-2.4662866E-1,7.4775814E-4,3.7257004E-1,-1.7482133E-1,4.7621712E-1,-2.929707E-1,-1.4579433E-1,3.6833446E-2,-3.9908573E-1,-2.083217E-1,1.0499657E0,2.3381832E-1,5.5421215E-2,-2.9309347E-1,3.33325E-1,2.1639456E-1,-1.0881998E-1,1.9456375E-1,-2.3664759E-1,4.355125E-1,-5.2970592E-2,2.629897E-1,-1.9346602E-1,6.414633E-2,-1.8370466E-1,1.6712236E-1,-1.2935491E-2,2.711102E-3,2.6891327E-1,-4.3501335E-1,-1.227905E-2,1.9011937E-1,-8.9676365E-2],"categories":[],"categories_nodes":[],"categories_segments":[],"categories_sizes":[],"default_left":[0,0,0,0,0,0,0,0,0,0,0,0,0,0,0,0,0,0,0,0,0,0,0,0,0,0,0,0,0,0,0,0,0,0,0,0,0],"id":15,"left_children":[1,3,5,7,9,11,13,-1,15,-1,17,19,-1,21,23,-1,25,27,29,31,33,35,-1,-1,-1,-1,-1,-1,-1,-1,-1,-1,-1,-1,-1,-1,-1],"loss_changes":[1.1636808E0,1.367557E0,1.2774047E0,1.6344885E0,2.1531115E0,3.675026E0,4.3493924E0,0E0,6.690253E-1,0E0,2.1903763E0,2.0371685E0,0E0,1.5959005E0,2.3985267E0,0E0,2.4086137E0,3.5868196E0,5.944905E-1,4.690987E0,3.8098125E0,1.0964117E0,0E0,0E0,0E0,0E0,0E0,0E0,0E0,0E0,0E0,0E0,0E0,0E0,0E0,0E0,0E0],"parents":[2147483647,0,0,1,1,2,2,3,3,4,4,5,5,6,6,8,8,10,10,11,11,13,13,14,14,16,16,17,17,18,18,19,19,20,20,21,21],"right_children":[2,4,6,8,10,12,14,-1,16,-1,18,20,-1,22,24,-1,26,28,30,32,34,36,-1,-1,-1,-1,-1,-1,-1,-1,-1,-1,-1,-1,-1,-1,-1],"split_conditions":[3.085205E-1,-7.559419E-3,-7.5093895E-2,-1.6360371E-1,4.8607063E-1,-2.2655481E-1,1.6813616E-1,-1.7482133E-1,-5.988082E-1,-2.929707E-1,1.2310776E0,-5.1094674E-2,-3.9908573E-1,-5.988082E-1,4.1418687E-1,2.3381832E-1,-1.1188297E-1,-4.4604984E-1,8.5945153E-1,-3.0974466E-1,3.7435153E-3,2.588005E-2,-2.3664759E-1,4.355125E-1,-5.2970592E-2,2.629897E-1,-1.9346602E-1,6.414633E-2,-1.8370466E-1,1.6712236E-1,-1.2935491E-2,2.711102E-3,2.6891327E-1,-4.3501335E-1,-1.227905E-2,1.9011937E-1,-8.9676365E-2],"split_indices":[1,3,0,4,3,0,4,0,5,0,4,4,0,5,4,0,4,4,6,4,4,0,0,0,0,0,0,0,0,0,0,0,0,0,0,0,0],"split_type":[0,0,0,0,0,0,0,0,0,0,0,0,0,0,0,0,0,0,0,0,0,0,0,0,0,0,0,0,0,0,0,0,0,0,0,0,0],"sum_hessian":[1.2443114E2,3.7781445E1,8.664969E1,6.19385E0,3.1587593E1,7.715228E1,9.497408E0,1.0956601E0,5.09819E0,2.9352486E0,2.8652344E1,7.599183E1,1.1604537E0,5.485692E0,4.0117164E0,2.598082E0,2.5001075E0,2.2211857E1,6.4404874E0,3.3816845E1,4.2174988E1,3.5516188E0,1.9340732E0,2.996004E0,1.0157121E0,1.0392683E0,1.4608394E0,8.424544E0,1.37873125E1,3.8822398E0,2.5582476E0,2.6395613E1,7.4212303E0,1.167031E0,4.1007954E1,1.7618785E0,1.7897403E0],"tree_param":{"num_deleted":"0","num_feature":"8","num_nodes":"37","size_leaf_vector":"1"}}]},"name":"gbtree"},"learner_model_param":{"base_score":"[5E-1]","boost_from_average":"1","num_class":"0","num_feature":"8","num_target":"1"},"objective":{"name":"binary:logistic","reg_loss_param":{"scale_pos_weight":"4.02307701"}}},"version":[3,2,0]}